<?xml version="1.0"?>
<opencv_storage>
<stage5>
  <maxWeakCount>9</maxWeakCount>
  <stageThreshold>-1.2364883422851563e+00</stageThreshold>
  <weakClassifiers>
    <_>
      <internalNodes>
        0 -1 1011 -1.8461298942565918e-01</internalNodes>
      <leafValues>
        4.7131147980690002e-01 -5.9523808956146240e-01</leafValues></_>
    <_>
      <internalNodes>
        0 -1 88500 -9.0939298272132874e-02</internalNodes>
      <leafValues>
        4.6075120568275452e-01 -4.0903905034065247e-01</leafValues></_>
    <_>
      <internalNodes>
        0 -1 142512 -8.9371884241700172e-03</internalNodes>
      <leafValues>
        3.9191246032714844e-01 -3.9995938539505005e-01</leafValues></_>
    <_>
      <internalNodes>
        0 -1 12284 -3.5776409786194563e-03</internalNodes>
      <leafValues>
        -7.1230781078338623e-01 2.1403144299983978e-01</leafValues></_>
    <_>
      <internalNodes>
        0 -1 162084 -4.9700908130034804e-04</internalNodes>
      <leafValues>
        -7.1502763032913208e-01 2.0041027665138245e-01</leafValues></_>
    <_>
      <internalNodes>
        0 -1 61147 -4.1680391877889633e-02</internalNodes>
      <leafValues>
        6.9453483819961548e-01 -2.3169580101966858e-01</leafValues></_>
    <_>
      <internalNodes>
        0 -1 13213 -7.3484925087541342e-04</internalNodes>
      <leafValues>
        -8.4902554750442505e-01 1.8546357750892639e-01</leafValues></_>
    <_>
      <internalNodes>
        0 -1 77723 -1.8368488550186157e-01</internalNodes>
      <leafValues>
        6.6410678625106812e-01 -2.3738695681095123e-01</leafValues></_>
    <_>
      <internalNodes>
        0 -1 86271 -4.8408226575702429e-04</internalNodes>
      <leafValues>
        -8.6177682876586914e-01 1.6049164533615112e-01</leafValues></_></weakClassifiers></stage5>
</opencv_storage>
