<?xml version="1.0"?>
<opencv_storage>
<stage2>
  <maxWeakCount>8</maxWeakCount>
  <stageThreshold>-1.6059972047805786e+00</stageThreshold>
  <weakClassifiers>
    <_>
      <internalNodes>
        0 -1 68481 -1.2978053092956543e-01</internalNodes>
      <leafValues>
        5.4333335161209106e-01 -7.6122450828552246e-01</leafValues></_>
    <_>
      <internalNodes>
        0 -1 50324 -8.6506858468055725e-02</internalNodes>
      <leafValues>
        6.6143381595611572e-01 -5.0451618432998657e-01</leafValues></_>
    <_>
      <internalNodes>
        0 -1 21208 -3.0741667374968529e-02</internalNodes>
      <leafValues>
        4.7131654620170593e-01 -4.7616669535636902e-01</leafValues></_>
    <_>
      <internalNodes>
        0 -1 147647 8.5734548047184944e-03</internalNodes>
      <leafValues>
        -4.3632799386978149e-01 4.5140585303306580e-01</leafValues></_>
    <_>
      <internalNodes>
        0 -1 8268 -9.1586820781230927e-03</internalNodes>
      <leafValues>
        4.0370541810989380e-01 -3.8881504535675049e-01</leafValues></_>
    <_>
      <internalNodes>
        0 -1 12265 -1.8785621505230665e-03</internalNodes>
      <leafValues>
        -6.9823807477951050e-01 2.1174886822700500e-01</leafValues></_>
    <_>
      <internalNodes>
        0 -1 128616 -2.9627699404954910e-04</internalNodes>
      <leafValues>
        2.5965735316276550e-01 -5.6951844692230225e-01</leafValues></_>
    <_>
      <internalNodes>
        0 -1 57774 -9.2807114124298096e-03</internalNodes>
      <leafValues>
        4.3108886480331421e-01 -2.9650545120239258e-01</leafValues></_></weakClassifiers></stage2>
</opencv_storage>
