<?xml version="1.0"?>
<opencv_storage>
<stage8>
  <maxWeakCount>12</maxWeakCount>
  <stageThreshold>-1.3398876190185547e+00</stageThreshold>
  <weakClassifiers>
    <_>
      <internalNodes>
        0 -1 78563 -1.7436884343624115e-01</internalNodes>
      <leafValues>
        2.5795054435729980e-01 -5.5818539857864380e-01</leafValues></_>
    <_>
      <internalNodes>
        0 -1 26792 -1.0937006026506424e-01</internalNodes>
      <leafValues>
        3.6745285987854004e-01 -3.8703161478042603e-01</leafValues></_>
    <_>
      <internalNodes>
        0 -1 162313 -9.4682147027924657e-04</internalNodes>
      <leafValues>
        -7.8706395626068115e-01 1.4476495981216431e-01</leafValues></_>
    <_>
      <internalNodes>
        0 -1 154720 5.5525945499539375e-03</internalNodes>
      <leafValues>
        -4.1940742731094360e-01 2.8449180722236633e-01</leafValues></_>
    <_>
      <internalNodes>
        0 -1 113681 -1.8902042880654335e-02</internalNodes>
      <leafValues>
        7.5489872694015503e-01 -1.7397774755954742e-01</leafValues></_>
    <_>
      <internalNodes>
        0 -1 69872 1.3485278468579054e-03</internalNodes>
      <leafValues>
        -2.9271554946899414e-01 3.7714284658432007e-01</leafValues></_>
    <_>
      <internalNodes>
        0 -1 60538 5.1872925832867622e-03</internalNodes>
      <leafValues>
        1.3020105659961700e-01 -8.6211538314819336e-01</leafValues></_>
    <_>
      <internalNodes>
        0 -1 159716 -6.8364979233592749e-04</internalNodes>
      <leafValues>
        -6.5940850973129272e-01 1.1767408996820450e-01</leafValues></_>
    <_>
      <internalNodes>
        0 -1 155207 2.1232543513178825e-03</internalNodes>
      <leafValues>
        1.4255222678184509e-01 -7.2654920816421509e-01</leafValues></_>
    <_>
      <internalNodes>
        0 -1 104646 -1.9106063991785049e-02</internalNodes>
      <leafValues>
        1.7086404561996460e-01 -5.7938325405120850e-01</leafValues></_>
    <_>
      <internalNodes>
        0 -1 3254 -1.2437183409929276e-02</internalNodes>
      <leafValues>
        3.7757229804992676e-01 -2.9248419404029846e-01</leafValues></_>
    <_>
      <internalNodes>
        0 -1 75728 -7.7559833880513906e-04</internalNodes>
      <leafValues>
        -5.6437611579895020e-01 1.5804874897003174e-01</leafValues></_></weakClassifiers></stage8>
</opencv_storage>
