<?xml version="1.0"?>
<opencv_storage>
<stage12>
  <maxWeakCount>19</maxWeakCount>
  <stageThreshold>-1.4801274538040161e+00</stageThreshold>
  <weakClassifiers>
    <_>
      <internalNodes>
        0 -1 71369 -1.1030767858028412e-01</internalNodes>
      <leafValues>
        3.0158731341362000e-01 -4.8551359772682190e-01</leafValues></_>
    <_>
      <internalNodes>
        0 -1 12675 -6.5870650112628937e-02</internalNodes>
      <leafValues>
        3.3866274356842041e-01 -2.7451685070991516e-01</leafValues></_>
    <_>
      <internalNodes>
        0 -1 25747 -1.0293115628883243e-03</internalNodes>
      <leafValues>
        -7.8294956684112549e-01 1.0857836902141571e-01</leafValues></_>
    <_>
      <internalNodes>
        0 -1 25803 -2.4582736194133759e-02</internalNodes>
      <leafValues>
        -7.6867377758026123e-01 1.3667859137058258e-01</leafValues></_>
    <_>
      <internalNodes>
        0 -1 10685 -1.3921131612733006e-03</internalNodes>
      <leafValues>
        -6.6731518507003784e-01 1.0743906348943710e-01</leafValues></_>
    <_>
      <internalNodes>
        0 -1 47040 -1.6748024150729179e-02</internalNodes>
      <leafValues>
        1.7499314248561859e-01 -4.5912635326385498e-01</leafValues></_>
    <_>
      <internalNodes>
        0 -1 24823 2.1289102733135223e-03</internalNodes>
      <leafValues>
        -2.1788227558135986e-01 3.8947045803070068e-01</leafValues></_>
    <_>
      <internalNodes>
        0 -1 97268 2.2295555099844933e-03</internalNodes>
      <leafValues>
        -1.6428215801715851e-01 5.5969154834747314e-01</leafValues></_>
    <_>
      <internalNodes>
        0 -1 25676 -9.1716868337243795e-04</internalNodes>
      <leafValues>
        -5.4779833555221558e-01 1.5930342674255371e-01</leafValues></_>
    <_>
      <internalNodes>
        0 -1 61691 -2.9696954414248466e-02</internalNodes>
      <leafValues>
        2.7209982275962830e-01 -3.0077019333839417e-01</leafValues></_>
    <_>
      <internalNodes>
        0 -1 3185 -6.3463249243795872e-03</internalNodes>
      <leafValues>
        4.4908684492111206e-01 -1.6264836490154266e-01</leafValues></_>
    <_>
      <internalNodes>
        0 -1 127488 8.4582231938838959e-03</internalNodes>
      <leafValues>
        -1.7257434129714966e-01 4.4987893104553223e-01</leafValues></_>
    <_>
      <internalNodes>
        0 -1 13177 5.1129434723407030e-04</internalNodes>
      <leafValues>
        1.4325384795665741e-01 -5.6149810552597046e-01</leafValues></_>
    <_>
      <internalNodes>
        0 -1 100610 -3.5203050356358290e-03</internalNodes>
      <leafValues>
        -9.1793864965438843e-01 5.8380585163831711e-02</leafValues></_>
    <_>
      <internalNodes>
        0 -1 12536 1.5167172532528639e-03</internalNodes>
      <leafValues>
        1.0233156383037567e-01 -5.8524703979492188e-01</leafValues></_>
    <_>
      <internalNodes>
        0 -1 88766 -1.0409604012966156e-01</internalNodes>
      <leafValues>
        4.0349581837654114e-01 -1.8776579201221466e-01</leafValues></_>
    <_>
      <internalNodes>
        0 -1 154929 2.4960789596661925e-04</internalNodes>
      <leafValues>
        -6.6826838254928589e-01 1.1024998873472214e-01</leafValues></_>
    <_>
      <internalNodes>
        0 -1 162285 -7.3181660845875740e-03</internalNodes>
      <leafValues>
        -6.3382762670516968e-01 1.0060305148363113e-01</leafValues></_>
    <_>
      <internalNodes>
        0 -1 161981 2.5017964653670788e-03</internalNodes>
      <leafValues>
        1.4393806457519531e-01 -4.8092958331108093e-01</leafValues></_></weakClassifiers></stage12>
</opencv_storage>
