<?xml version="1.0"?>
<opencv_storage>
<stage9>
  <maxWeakCount>16</maxWeakCount>
  <stageThreshold>-1.4211072921752930e+00</stageThreshold>
  <weakClassifiers>
    <_>
      <internalNodes>
        0 -1 96994 -2.0292833447456360e-02</internalNodes>
      <leafValues>
        5.8558557182550430e-02 -6.8208092451095581e-01</leafValues></_>
    <_>
      <internalNodes>
        0 -1 161561 4.2398357763886452e-03</internalNodes>
      <leafValues>
        -2.9151210188865662e-01 4.1953703761100769e-01</leafValues></_>
    <_>
      <internalNodes>
        0 -1 69676 3.3829577267169952e-02</internalNodes>
      <leafValues>
        -4.3804857134819031e-01 2.5951725244522095e-01</leafValues></_>
    <_>
      <internalNodes>
        0 -1 162304 -3.1436217250302434e-04</internalNodes>
      <leafValues>
        -6.9770997762680054e-01 1.7962504923343658e-01</leafValues></_>
    <_>
      <internalNodes>
        0 -1 107242 -5.1347188651561737e-02</internalNodes>
      <leafValues>
        3.5397729277610779e-01 -3.3990651369094849e-01</leafValues></_>
    <_>
      <internalNodes>
        0 -1 159696 -1.1933406349271536e-03</internalNodes>
      <leafValues>
        -7.4290460348129272e-01 1.2750652432441711e-01</leafValues></_>
    <_>
      <internalNodes>
        0 -1 137469 -2.2646951038041152e-05</internalNodes>
      <leafValues>
        1.3397830724716187e-01 -6.5184509754180908e-01</leafValues></_>
    <_>
      <internalNodes>
        0 -1 97586 4.5791156589984894e-03</internalNodes>
      <leafValues>
        -2.0626650750637054e-01 6.3973772525787354e-01</leafValues></_>
    <_>
      <internalNodes>
        0 -1 159715 -6.0733023565262556e-04</internalNodes>
      <leafValues>
        -6.6335600614547729e-01 1.9904826581478119e-01</leafValues></_>
    <_>
      <internalNodes>
        0 -1 127712 -7.0469090715050697e-03</internalNodes>
      <leafValues>
        1.9827933609485626e-01 -4.5398718118667603e-01</leafValues></_>
    <_>
      <internalNodes>
        0 -1 47541 -3.5546678118407726e-03</internalNodes>
      <leafValues>
        2.3130843043327332e-01 -4.1684132814407349e-01</leafValues></_>
    <_>
      <internalNodes>
        0 -1 137949 -6.0877883806824684e-03</internalNodes>
      <leafValues>
        2.2996479272842407e-01 -3.5259571671485901e-01</leafValues></_>
    <_>
      <internalNodes>
        0 -1 129827 2.7278475463390350e-03</internalNodes>
      <leafValues>
        1.2534078955650330e-01 -8.0097347497940063e-01</leafValues></_>
    <_>
      <internalNodes>
        0 -1 105841 -3.1742960214614868e-02</internalNodes>
      <leafValues>
        5.6096446514129639e-01 -1.6405773162841797e-01</leafValues></_>
    <_>
      <internalNodes>
        0 -1 12501 4.3396782130002975e-03</internalNodes>
      <leafValues>
        -2.7113795280456543e-01 3.6996999382972717e-01</leafValues></_>
    <_>
      <internalNodes>
        0 -1 8183 -6.5534166060388088e-03</internalNodes>
      <leafValues>
        4.5855945348739624e-01 -1.8381343781948090e-01</leafValues></_></weakClassifiers></stage9>
</opencv_storage>
