<?xml version="1.0"?>
<opencv_storage>
<stage17>
  <maxWeakCount>20</maxWeakCount>
  <stageThreshold>-1.1861585378646851e+00</stageThreshold>
  <weakClassifiers>
    <_>
      <internalNodes>
        0 -1 38661 -5.3261868655681610e-02</internalNodes>
      <leafValues>
        4.2459737509489059e-02 -5.0055742263793945e-01</leafValues></_>
    <_>
      <internalNodes>
        0 -1 12822 -7.4887718074023724e-04</internalNodes>
      <leafValues>
        -7.1309614181518555e-01 8.8617339730262756e-02</leafValues></_>
    <_>
      <internalNodes>
        0 -1 86332 -5.6472197175025940e-03</internalNodes>
      <leafValues>
        4.1540336608886719e-01 -1.9307723641395569e-01</leafValues></_>
    <_>
      <internalNodes>
        0 -1 244 -1.9292179786134511e-05</internalNodes>
      <leafValues>
        2.1606726944446564e-01 -3.7370392680168152e-01</leafValues></_>
    <_>
      <internalNodes>
        0 -1 96744 1.7189728096127510e-02</internalNodes>
      <leafValues>
        -6.4839041233062744e-01 9.7039960324764252e-02</leafValues></_>
    <_>
      <internalNodes>
        0 -1 125797 -3.0477116815745831e-03</internalNodes>
      <leafValues>
        6.5745037794113159e-01 -1.1586905270814896e-01</leafValues></_>
    <_>
      <internalNodes>
        0 -1 75594 -1.9085831940174103e-02</internalNodes>
      <leafValues>
        5.4475373029708862e-01 -1.2902051210403442e-01</leafValues></_>
    <_>
      <internalNodes>
        0 -1 76156 2.5522590149194002e-03</internalNodes>
      <leafValues>
        -2.4287083745002747e-01 3.2207769155502319e-01</leafValues></_>
    <_>
      <internalNodes>
        0 -1 151938 3.4006589557975531e-03</internalNodes>
      <leafValues>
        1.0192403942346573e-01 -7.1878212690353394e-01</leafValues></_>
    <_>
      <internalNodes>
        0 -1 147850 1.6517196781933308e-03</internalNodes>
      <leafValues>
        -1.5714159607887268e-01 4.6149665117263794e-01</leafValues></_>
    <_>
      <internalNodes>
        0 -1 162269 -8.8942993897944689e-04</internalNodes>
      <leafValues>
        -8.1843036413192749e-01 8.1345826387405396e-02</leafValues></_>
    <_>
      <internalNodes>
        0 -1 162095 -3.2379955518990755e-04</internalNodes>
      <leafValues>
        -8.3949279785156250e-01 7.6410874724388123e-02</leafValues></_>
    <_>
      <internalNodes>
        0 -1 10622 -1.1049122549593449e-02</internalNodes>
      <leafValues>
        3.0453261733055115e-01 -2.5080758333206177e-01</leafValues></_>
    <_>
      <internalNodes>
        0 -1 87178 -4.2630704119801521e-03</internalNodes>
      <leafValues>
        6.0922169685363770e-01 -1.1894915997982025e-01</leafValues></_>
    <_>
      <internalNodes>
        0 -1 149171 2.0840005017817020e-03</internalNodes>
      <leafValues>
        1.1574409902095795e-01 -6.8541526794433594e-01</leafValues></_>
    <_>
      <internalNodes>
        0 -1 96425 -1.6951893921941519e-03</internalNodes>
      <leafValues>
        5.5623430013656616e-01 -1.4809192717075348e-01</leafValues></_>
    <_>
      <internalNodes>
        0 -1 126133 -1.3852480798959732e-02</internalNodes>
      <leafValues>
        5.3968781232833862e-01 -1.2562419474124908e-01</leafValues></_>
    <_>
      <internalNodes>
        0 -1 137649 6.2989918515086174e-03</internalNodes>
      <leafValues>
        -1.5171799063682556e-01 4.6418249607086182e-01</leafValues></_>
    <_>
      <internalNodes>
        0 -1 98600 -4.9511892721056938e-03</internalNodes>
      <leafValues>
        -9.1228276491165161e-01 8.7860532104969025e-02</leafValues></_>
    <_>
      <internalNodes>
        0 -1 89992 8.2211308181285858e-03</internalNodes>
      <leafValues>
        -1.4242866635322571e-01 5.7767301797866821e-01</leafValues></_></weakClassifiers></stage17>
</opencv_storage>
