<?xml version="1.0"?>
<opencv_storage>
<stage3>
  <maxWeakCount>9</maxWeakCount>
  <stageThreshold>-1.2582063674926758e+00</stageThreshold>
  <weakClassifiers>
    <_>
      <internalNodes>
        0 -1 96541 -2.3408289998769760e-02</internalNodes>
      <leafValues>
        3.2033425569534302e-01 -7.5406032800674438e-01</leafValues></_>
    <_>
      <internalNodes>
        0 -1 61109 -7.2129324078559875e-02</internalNodes>
      <leafValues>
        6.1796694993972778e-01 -3.9165070652961731e-01</leafValues></_>
    <_>
      <internalNodes>
        0 -1 2695 -1.7973518371582031e-01</internalNodes>
      <leafValues>
        5.3535187244415283e-01 -3.6788082122802734e-01</leafValues></_>
    <_>
      <internalNodes>
        0 -1 20230 -1.9255428016185760e-01</internalNodes>
      <leafValues>
        5.8676671981811523e-01 -2.8077191114425659e-01</leafValues></_>
    <_>
      <internalNodes>
        0 -1 157896 1.1022424325346947e-02</internalNodes>
      <leafValues>
        -3.4975272417068481e-01 4.4028240442276001e-01</leafValues></_>
    <_>
      <internalNodes>
        0 -1 78727 -3.5269767045974731e-02</internalNodes>
      <leafValues>
        7.4327158927917480e-01 -2.2535279393196106e-01</leafValues></_>
    <_>
      <internalNodes>
        0 -1 13186 -4.3295253999531269e-04</internalNodes>
      <leafValues>
        -8.1376528739929199e-01 2.5694102048873901e-01</leafValues></_>
    <_>
      <internalNodes>
        0 -1 87065 4.4805351644754410e-02</internalNodes>
      <leafValues>
        -2.4916686117649078e-01 6.9010823965072632e-01</leafValues></_>
    <_>
      <internalNodes>
        0 -1 133749 3.5547337029129267e-04</internalNodes>
      <leafValues>
        2.3595008254051208e-01 -7.7148932218551636e-01</leafValues></_></weakClassifiers></stage3>
</opencv_storage>
